digraph Tree {
node [shape=box, style="filled, rounded", color="black", fontname="helvetica"] ;
edge [fontname="helvetica"] ;
0 [label="petal length (cm) <= 2.6\ngini = 0.66\nsamples = 96\nvalue = [61, 41, 48]\nclass = setosa", fillcolor="#fcefe6"] ;
1 [label="gini = 0.0\nsamples = 36\nvalue = [61, 0, 0]\nclass = setosa", fillcolor="#e58139"] ;
0 -> 1 [labeldistance=2.5, labelangle=45, headlabel="True"] ;
2 [label="sepal length (cm) <= 6.75\ngini = 0.5\nsamples = 60\nvalue = [0, 41, 48]\nclass = virginica", fillcolor="#ede2fb"] ;
0 -> 2 [labeldistance=2.5, labelangle=-45, headlabel="False"] ;
3 [label="petal length (cm) <= 4.85\ngini = 0.49\nsamples = 51\nvalue = [0, 41, 31]\nclass = versicolor", fillcolor="#cff9e0"] ;
2 -> 3 ;
4 [label="petal length (cm) <= 4.75\ngini = 0.19\nsamples = 33\nvalue = [0, 41, 5]\nclass = versicolor", fillcolor="#51e890"] ;
3 -> 4 ;
5 [label="petal width (cm) <= 1.65\ngini = 0.13\nsamples = 30\nvalue = [0, 39, 3]\nclass = versicolor", fillcolor="#48e78b"] ;
4 -> 5 ;
6 [label="gini = 0.0\nsamples = 29\nvalue = [0, 39, 0]\nclass = versicolor", fillcolor="#39e581"] ;
5 -> 6 ;
7 [label="gini = 0.0\nsamples = 1\nvalue = [0, 0, 3]\nclass = virginica", fillcolor="#8139e5"] ;
5 -> 7 ;
8 [label="sepal length (cm) <= 5.95\ngini = 0.5\nsamples = 3\nvalue = [0, 2, 2]\nclass = versicolor", fillcolor="#ffffff"] ;
4 -> 8 ;
9 [label="gini = 0.0\nsamples = 1\nvalue = [0, 2, 0]\nclass = versicolor", fillcolor="#39e581"] ;
8 -> 9 ;
10 [label="gini = 0.0\nsamples = 2\nvalue = [0, 0, 2]\nclass = virginica", fillcolor="#8139e5"] ;
8 -> 10 ;
11 [label="gini = 0.0\nsamples = 18\nvalue = [0, 0, 26]\nclass = virginica", fillcolor="#8139e5"] ;
3 -> 11 ;
12 [label="gini = 0.0\nsamples = 9\nvalue = [0, 0, 17]\nclass = virginica", fillcolor="#8139e5"] ;
2 -> 12 ;
}